{
  "num_round": 100,
  "interaction_constraints": [],
  "monotone_constraints": {},
  "params": {
    "minbucket": 1,
    "sparsity": 1,
    "num_estimators": 20,
    "max_depth": 5
  },
  "checkpoint_interval": 10,
  "model_": {
    "inner": {
      "learner": {
        "learner_model_param": {
          "num_class": "2",
          "num_feature": "112",
          "base_score": "5E-1",
          "num_target": "1"
        },
        "feature_names": [],
        "attributes": {},
        "objective": {
          "name": "multi:softprob",
          "softmax_multiclass_param": {
            "num_class": "2"
          }
        },
        "feature_types": [],
        "gradient_booster": {
          "name": "gbtree",
          "model": {
            "trees": [
              {
                "default_left": [
                  1,
                  0,
                  1,
                  1,
                  1,
                  1,
                  1,
                  1,
                  0,
                  1,
                  1,
                  1,
                  1,
                  1,
                  1,
                  0,
                  0,
                  0,
                  0,
                  0,
                  0,
                  0,
                  0,
                  0,
                  0,
                  0,
                  0
                ],
                "split_conditions": [
                  0.5,
                  -0.298374,
                  0.5,
                  88560.0,
                  0.5,
                  19265.002,
                  0.5,
                  3846.36,
                  -0.15,
                  6.4150004,
                  0.5,
                  0.5,
                  29.725,
                  0.12500001,
                  84.645004,
                  -0.0,
                  0.26756757,
                  -0.20000002,
                  0.13953489,
                  -0.20212767,
                  0.15714288,
                  -0.0,
                  0.25384617,
                  0.042857148,
                  0.25286624,
                  -0.081818186,
                  0.23333335
                ],
                "categories_nodes": [],
                "tree_param": {
                  "size_leaf_vector": "0",
                  "num_feature": "112",
                  "num_nodes": "27",
                  "num_deleted": "0"
                },
                "base_weights": [
                  -0.0,
                  -0.99458,
                  0.36157635,
                  -0.063097514,
                  0.8097166,
                  0.6219512,
                  -0.3739612,
                  0.81707317,
                  -0.5,
                  0.8684211,
                  0.4,
                  -0.5217391,
                  0.80487806,
                  0.83613443,
                  0.22222222,
                  -0.0,
                  0.8918919,
                  -0.6666667,
                  0.4651163,
                  -0.67375886,
                  0.52380955,
                  -0.0,
                  0.84615386,
                  0.14285715,
                  0.84288746,
                  -0.27272728,
                  0.7777778
                ],
                "parents": [
                  2147483647,
                  0,
                  0,
                  2,
                  2,
                  3,
                  3,
                  4,
                  4,
                  5,
                  5,
                  6,
                  6,
                  7,
                  7,
                  9,
                  9,
                  10,
                  10,
                  11,
                  11,
                  12,
                  12,
                  13,
                  13,
                  14,
                  14
                ],
                "categories_segments": [],
                "categories_sizes": [],
                "right_children": [
                  2,
                  -1,
                  4,
                  6,
                  8,
                  10,
                  12,
                  14,
                  -1,
                  16,
                  18,
                  20,
                  22,
                  24,
                  26,
                  -1,
                  -1,
                  -1,
                  -1,
                  -1,
                  -1,
                  -1,
                  -1,
                  -1,
                  -1,
                  -1,
                  -1
                ],
                "sum_hessian": [
                  690.0,
                  183.5,
                  506.5,
                  260.5,
                  246.0,
                  81.0,
                  179.5,
                  245.0,
                  1.0,
                  37.0,
                  44.0,
                  160.0,
                  19.5,
                  237.0,
                  8.0,
                  1.0,
                  36.0,
                  2.0,
                  42.0,
                  140.0,
                  20.0,
                  1.0,
                  18.5,
                  2.5,
                  234.5,
                  4.5,
                  3.5
                ],
                "id": 0,
                "left_children": [
                  1,
                  -1,
                  3,
                  5,
                  7,
                  9,
                  11,
                  13,
                  -1,
                  15,
                  17,
                  19,
                  21,
                  23,
                  25,
                  -1,
                  -1,
                  -1,
                  -1,
                  -1,
                  -1,
                  -1,
                  -1,
                  -1,
                  -1,
                  -1,
                  -1
                ],
                "split_indices": [
                  99,
                  0,
                  80,
                  9,
                  17,
                  8,
                  86,
                  7,
                  0,
                  1,
                  3,
                  88,
                  5,
                  6,
                  5,
                  0,
                  0,
                  0,
                  0,
                  0,
                  0,
                  0,
                  0,
                  0,
                  0,
                  0,
                  0
                ],
                "loss_changes": [
                  248.85468,
                  0.0,
                  96.63516,
                  55.920788,
                  2.788391,
                  4.138382,
                  31.864193,
                  2.6035004,
                  0.0,
                  0.77453804,
                  3.4356585,
                  25.94291,
                  0.6810503,
                  0.9938202,
                  2.686869,
                  0.0,
                  0.0,
                  0.0,
                  0.0,
                  0.0,
                  0.0,
                  0.0,
                  0.0,
                  0.0,
                  0.0,
                  0.0,
                  0.0
                ],
                "categories": [],
                "split_type": [
                  0,
                  0,
                  0,
                  0,
                  0,
                  0,
                  0,
                  0,
                  0,
                  0,
                  0,
                  0,
                  0,
                  0,
                  0,
                  0,
                  0,
                  0,
                  0,
                  0,
                  0,
                  0,
                  0,
                  0,
                  0,
                  0,
                  0
                ]
              },
              {
                "default_left": [
                  1,
                  0,
                  1,
                  1,
                  1,
                  1,
                  1,
                  1,
                  0,
                  1,
                  1,
                  1,
                  1,
                  1,
                  1,
                  0,
                  0,
                  0,
                  0,
                  0,
                  0,
                  0,
                  0,
                  0,
                  0,
                  0,
                  0
                ],
                "split_conditions": [
                  0.5,
                  0.298374,
                  0.5,
                  88560.0,
                  0.5,
                  19265.002,
                  0.5,
                  3846.36,
                  0.15,
                  6.4150004,
                  0.5,
                  0.5,
                  29.725,
                  0.12500001,
                  84.645004,
                  -0.0,
                  -0.26756757,
                  0.20000002,
                  -0.13953489,
                  0.20212767,
                  -0.15714288,
                  -0.0,
                  -0.25384617,
                  -0.042857148,
                  -0.25286624,
                  0.081818186,
                  -0.23333335
                ],
                "categories_nodes": [],
                "tree_param": {
                  "size_leaf_vector": "0",
                  "num_feature": "112",
                  "num_nodes": "27",
                  "num_deleted": "0"
                },
                "base_weights": [
                  -0.0,
                  0.99458,
                  -0.36157635,
                  0.063097514,
                  -0.8097166,
                  -0.6219512,
                  0.3739612,
                  -0.81707317,
                  0.5,
                  -0.8684211,
                  -0.4,
                  0.5217391,
                  -0.80487806,
                  -0.83613443,
                  -0.22222222,
                  -0.0,
                  -0.8918919,
                  0.6666667,
                  -0.4651163,
                  0.67375886,
                  -0.52380955,
                  -0.0,
                  -0.84615386,
                  -0.14285715,
                  -0.84288746,
                  0.27272728,
                  -0.7777778
                ],
                "parents": [
                  2147483647,
                  0,
                  0,
                  2,
                  2,
                  3,
                  3,
                  4,
                  4,
                  5,
                  5,
                  6,
                  6,
                  7,
                  7,
                  9,
                  9,
                  10,
                  10,
                  11,
                  11,
                  12,
                  12,
                  13,
                  13,
                  14,
                  14
                ],
                "categories_segments": [],
                "categories_sizes": [],
                "right_children": [
                  2,
                  -1,
                  4,
                  6,
                  8,
                  10,
                  12,
                  14,
                  -1,
                  16,
                  18,
                  20,
                  22,
                  24,
                  26,
                  -1,
                  -1,
                  -1,
                  -1,
                  -1,
                  -1,
                  -1,
                  -1,
                  -1,
                  -1,
                  -1,
                  -1
                ],
                "sum_hessian": [
                  690.0,
                  183.5,
                  506.5,
                  260.5,
                  246.0,
                  81.0,
                  179.5,
                  245.0,
                  1.0,
                  37.0,
                  44.0,
                  160.0,
                  19.5,
                  237.0,
                  8.0,
                  1.0,
                  36.0,
                  2.0,
                  42.0,
                  140.0,
                  20.0,
                  1.0,
                  18.5,
                  2.5,
                  234.5,
                  4.5,
                  3.5
                ],
                "id": 1,
                "left_children": [
                  1,
                  -1,
                  3,
                  5,
                  7,
                  9,
                  11,
                  13,
                  -1,
                  15,
                  17,
                  19,
                  21,
                  23,
                  25,
                  -1,
                  -1,
                  -1,
                  -1,
                  -1,
                  -1,
                  -1,
                  -1,
                  -1,
                  -1,
                  -1,
                  -1
                ],
                "split_indices": [
                  99,
                  0,
                  80,
                  9,
                  17,
                  8,
                  86,
                  7,
                  0,
                  1,
                  3,
                  88,
                  5,
                  6,
                  5,
                  0,
                  0,
                  0,
                  0,
                  0,
                  0,
                  0,
                  0,
                  0,
                  0,
                  0,
                  0
                ],
                "loss_changes": [
                  248.85468,
                  0.0,
                  96.63516,
                  55.920788,
                  2.788391,
                  4.138382,
                  31.864193,
                  2.6035004,
                  0.0,
                  0.77453804,
                  3.4356585,
                  25.94291,
                  0.6810503,
                  0.9938202,
                  2.686869,
                  0.0,
                  0.0,
                  0.0,
                  0.0,
                  0.0,
                  0.0,
                  0.0,
                  0.0,
                  0.0,
                  0.0,
                  0.0,
                  0.0
                ],
                "categories": [],
                "split_type": [
                  0,
                  0,
                  0,
                  0,
                  0,
                  0,
                  0,
                  0,
                  0,
                  0,
                  0,
                  0,
                  0,
                  0,
                  0,
                  0,
                  0,
                  0,
                  0,
                  0,
                  0,
                  0,
                  0,
                  0,
                  0,
                  0,
                  0
                ]
              },
              {
                "default_left": [
                  1,
                  0,
                  1,
                  1,
                  1,
                  1,
                  1,
                  1,
                  0,
                  1,
                  1,
                  1,
                  1,
                  0,
                  1,
                  0,
                  0,
                  0,
                  0,
                  0,
                  0,
                  0,
                  0,
                  0,
                  0
                ],
                "split_conditions": [
                  0.5,
                  -0.23121431,
                  0.5,
                  58511.53,
                  72.34501,
                  19265.002,
                  0.5,
                  6415.0,
                  -0.05382443,
                  0.5,
                  10.0,
                  0.5,
                  56.205,
                  -0.010669658,
                  29.43,
                  0.2192608,
                  0.09611831,
                  -0.08284335,
                  0.12014274,
                  -0.14819244,
                  0.11527796,
                  0.21339841,
                  0.042659216,
                  0.16813807,
                  0.20897831
                ],
                "categories_nodes": [],
                "tree_param": {
                  "size_leaf_vector": "0",
                  "num_feature": "112",
                  "num_nodes": "25",
                  "num_deleted": "0"
                },
                "base_weights": [
                  0.00014080832,
                  -0.77071434,
                  0.27036628,
                  -0.04436291,
                  0.609093,
                  0.4782684,
                  -0.26659513,
                  0.6182164,
                  -0.17941475,
                  0.66377205,
                  0.3044922,
                  -0.38194588,
                  0.5921943,
                  -0.035565525,
                  0.62511355,
                  0.7308693,
                  0.32039434,
                  -0.27614447,
                  0.4004758,
                  -0.49397478,
                  0.38425985,
                  0.711328,
                  0.14219739,
                  0.5604602,
                  0.69659436
                ],
                "parents": [
                  2147483647,
                  0,
                  0,
                  2,
                  2,
                  3,
                  3,
                  4,
                  4,
                  5,
                  5,
                  6,
                  6,
                  7,
                  7,
                  9,
                  9,
                  10,
                  10,
                  11,
                  11,
                  12,
                  12,
                  14,
                  14
                ],
                "categories_segments": [],
                "categories_sizes": [],
                "right_children": [
                  2,
                  -1,
                  4,
                  6,
                  8,
                  10,
                  12,
                  14,
                  -1,
                  16,
                  18,
                  20,
                  22,
                  -1,
                  24,
                  -1,
                  -1,
                  -1,
                  -1,
                  -1,
                  -1,
                  -1,
                  -1,
                  -1,
                  -1
                ],
                "sum_hessian": [
                  649.4279,
                  168.08638,
                  481.34155,
                  249.95964,
                  231.38191,
                  74.23245,
                  175.72719,
                  228.94882,
                  2.433084,
                  34.540874,
                  39.691578,
                  155.40833,
                  20.318861,
                  2.3467216,
                  226.6021,
                  27.950727,
                  6.5901456,
                  5.364279,
                  34.327297,
                  135.89418,
                  19.514141,
                  15.606424,
                  4.712436,
                  123.6254,
                  102.97671
                ],
                "id": 2,
                "left_children": [
                  1,
                  -1,
                  3,
                  5,
                  7,
                  9,
                  11,
                  13,
                  -1,
                  15,
                  17,
                  19,
                  21,
                  -1,
                  23,
                  -1,
                  -1,
                  -1,
                  -1,
                  -1,
                  -1,
                  -1,
                  -1,
                  -1,
                  -1
                ],
                "split_indices": [
                  99,
                  0,
                  80,
                  8,
                  1,
                  8,
                  86,
                  9,
                  0,
                  88,
                  1,
                  88,
                  5,
                  0,
                  1,
                  0,
                  0,
                  0,
                  0,
                  0,
                  0,
                  0,
                  0,
                  0,
                  0
                ],
                "loss_changes": [
                  135.69557,
                  0.0,
                  51.448093,
                  29.275341,
                  1.7826462,
                  2.2230892,
                  17.733135,
                  1.0591278,
                  0.0,
                  0.5846853,
                  2.3783958,
                  13.615467,
                  1.0417509,
                  0.0,
                  0.6614456,
                  0.0,
                  0.0,
                  0.0,
                  0.0,
                  0.0,
                  0.0,
                  0.0,
                  0.0,
                  0.0,
                  0.0
                ],
                "categories": [],
                "split_type": [
                  0,
                  0,
                  0,
                  0,
                  0,
                  0,
                  0,
                  0,
                  0,
                  0,
                  0,
                  0,
                  0,
                  0,
                  0,
                  0,
                  0,
                  0,
                  0,
                  0,
                  0,
                  0,
                  0,
                  0,
                  0
                ]
              },
              {
                "default_left": [
                  1,
                  0,
                  1,
                  1,
                  1,
                  1,
                  1,
                  1,
                  0,
                  1,
                  1,
                  1,
                  1,
                  0,
                  1,
                  0,
                  0,
                  0,
                  0,
                  0,
                  0,
                  0,
                  0,
                  0,
                  0
                ],
                "split_conditions": [
                  0.5,
                  0.23121433,
                  0.5,
                  58511.53,
                  72.34501,
                  19265.002,
                  0.5,
                  6415.0,
                  0.05382443,
                  0.5,
                  10.0,
                  0.5,
                  56.205,
                  0.01066963,
                  29.43,
                  -0.2192608,
                  -0.09611831,
                  0.08284333,
                  -0.12014275,
                  0.14819244,
                  -0.11527793,
                  -0.21339844,
                  -0.042659234,
                  -0.1681381,
                  -0.20897834
                ],
                "categories_nodes": [],
                "tree_param": {
                  "size_leaf_vector": "0",
                  "num_feature": "112",
                  "num_nodes": "25",
                  "num_deleted": "0"
                },
                "base_weights": [
                  -0.00014083613,
                  0.7707144,
                  -0.27036634,
                  0.044362903,
                  -0.60909307,
                  -0.47826844,
                  0.26659513,
                  -0.6182165,
                  0.17941475,
                  -0.66377205,
                  -0.3044922,
                  0.38194588,
                  -0.5921944,
                  0.035565432,
                  -0.62511367,
                  -0.7308693,
                  -0.32039434,
                  0.27614444,
                  -0.40047583,
                  0.49397478,
                  -0.38425976,
                  -0.7113281,
                  -0.14219745,
                  -0.5604603,
                  -0.6965944
                ],
                "parents": [
                  2147483647,
                  0,
                  0,
                  2,
                  2,
                  3,
                  3,
                  4,
                  4,
                  5,
                  5,
                  6,
                  6,
                  7,
                  7,
                  9,
                  9,
                  10,
                  10,
                  11,
                  11,
                  12,
                  12,
                  14,
                  14
                ],
                "categories_segments": [],
                "categories_sizes": [],
                "right_children": [
                  2,
                  -1,
                  4,
                  6,
                  8,
                  10,
                  12,
                  14,
                  -1,
                  16,
                  18,
                  20,
                  22,
                  -1,
                  24,
                  -1,
                  -1,
                  -1,
                  -1,
                  -1,
                  -1,
                  -1,
                  -1,
                  -1,
                  -1
                ],
                "sum_hessian": [
                  649.4279,
                  168.08638,
                  481.34155,
                  249.95964,
                  231.38193,
                  74.23245,
                  175.72719,
                  228.94884,
                  2.433084,
                  34.540874,
                  39.691578,
                  155.40833,
                  20.318861,
                  2.346722,
                  226.60211,
                  27.950727,
                  6.5901456,
                  5.364279,
                  34.3273,
                  135.89418,
                  19.514141,
                  15.606424,
                  4.712436,
                  123.625404,
                  102.97671
                ],
                "id": 3,
                "left_children": [
                  1,
                  -1,
                  3,
                  5,
                  7,
                  9,
                  11,
                  13,
                  -1,
                  15,
                  17,
                  19,
                  21,
                  -1,
                  23,
                  -1,
                  -1,
                  -1,
                  -1,
                  -1,
                  -1,
                  -1,
                  -1,
                  -1,
                  -1
                ],
                "split_indices": [
                  99,
                  0,
                  80,
                  8,
                  1,
                  8,
                  86,
                  9,
                  0,
                  88,
                  1,
                  88,
                  5,
                  0,
                  1,
                  0,
                  0,
                  0,
                  0,
                  0,
                  0,
                  0,
                  0,
                  0,
                  0
                ],
                "loss_changes": [
                  135.6956,
                  0.0,
                  51.44811,
                  29.275341,
                  1.7826462,
                  2.2230892,
                  17.733139,
                  1.0591278,
                  0.0,
                  0.5846853,
                  2.378396,
                  13.615461,
                  1.0417504,
                  0.0,
                  0.6614456,
                  0.0,
                  0.0,
                  0.0,
                  0.0,
                  0.0,
                  0.0,
                  0.0,
                  0.0,
                  0.0,
                  0.0
                ],
                "categories": [],
                "split_type": [
                  0,
                  0,
                  0,
                  0,
                  0,
                  0,
                  0,
                  0,
                  0,
                  0,
                  0,
                  0,
                  0,
                  0,
                  0,
                  0,
                  0,
                  0,
                  0,
                  0,
                  0,
                  0,
                  0,
                  0,
                  0
                ]
              },
              {
                "default_left": [
                  1,
                  0,
                  1,
                  1,
                  1,
                  1,
                  1,
                  1,
                  1,
                  1,
                  1,
                  1,
                  1,
                  1,
                  1,
                  1,
                  0,
                  0,
                  0,
                  0,
                  0,
                  0,
                  0,
                  0,
                  0,
                  0,
                  0,
                  0,
                  0,
                  0,
                  0
                ],
                "split_conditions": [
                  0.5,
                  -0.20058177,
                  0.5,
                  58511.53,
                  3200.87,
                  19265.002,
                  0.5,
                  31.400002,
                  65.355,
                  0.5,
                  70772.48,
                  0.5,
                  90109.06,
                  771295.06,
                  0.5,
                  2.786175e6,
                  -0.12610884,
                  0.18629026,
                  0.07491185,
                  0.023306947,
                  0.19527209,
                  -0.10334175,
                  0.22298722,
                  -0.018575849,
                  0.16811527,
                  0.14209893,
                  -0.022092724,
                  0.18730567,
                  0.01929439,
                  0.1406655,
                  -0.042198777
                ],
                "categories_nodes": [],
                "tree_param": {
                  "size_leaf_vector": "0",
                  "num_feature": "112",
                  "num_nodes": "31",
                  "num_deleted": "0"
                },
                "base_weights": [
                  4.142692e-5,
                  -0.66860586,
                  0.21615972,
                  -0.030901613,
                  0.49214575,
                  0.37629175,
                  -0.20330356,
                  0.5106775,
                  0.11009395,
                  0.5543283,
                  0.22492695,
                  -0.29284352,
                  0.4830905,
                  0.44527727,
                  0.6021459,
                  0.3152001,
                  -0.4203628,
                  0.6209675,
                  0.24970615,
                  0.07768982,
                  0.6509069,
                  -0.3444725,
                  0.7432907,
                  -0.06191949,
                  0.5603842,
                  0.4736631,
                  -0.07364241,
                  0.6243522,
                  0.06431463,
                  0.468885,
                  -0.14066258
                ],
                "parents": [
                  2147483647,
                  0,
                  0,
                  2,
                  2,
                  3,
                  3,
                  4,
                  4,
                  5,
                  5,
                  6,
                  6,
                  7,
                  7,
                  8,
                  8,
                  9,
                  9,
                  10,
                  10,
                  11,
                  11,
                  12,
                  12,
                  13,
                  13,
                  14,
                  14,
                  15,
                  15
                ],
                "categories_segments": [],
                "categories_sizes": [],
                "right_children": [
                  2,
                  -1,
                  4,
                  6,
                  8,
                  10,
                  12,
                  14,
                  16,
                  18,
                  20,
                  22,
                  24,
                  26,
                  28,
                  30,
                  -1,
                  -1,
                  -1,
                  -1,
                  -1,
                  -1,
                  -1,
                  -1,
                  -1,
                  -1,
                  -1,
                  -1,
                  -1,
                  -1,
                  -1
                ],
                "sum_hessian": [
                  576.5671,
                  140.3244,
                  436.24268,
                  230.6521,
                  205.59058,
                  68.25622,
                  162.39589,
                  195.75847,
                  9.832107,
                  30.141418,
                  38.114796,
                  144.1632,
                  18.232698,
                  117.56624,
                  78.19222,
                  7.38314,
                  2.4489663,
                  23.879133,
                  6.262286,
                  29.203262,
                  8.911533,
                  137.95656,
                  6.206623,
                  2.2893121,
                  15.943387,
                  111.5514,
                  6.0148444,
                  74.937294,
                  3.2549329,
                  5.500269,
                  1.8828712
                ],
                "id": 4,
                "left_children": [
                  1,
                  -1,
                  3,
                  5,
                  7,
                  9,
                  11,
                  13,
                  15,
                  17,
                  19,
                  21,
                  23,
                  25,
                  27,
                  29,
                  -1,
                  -1,
                  -1,
                  -1,
                  -1,
                  -1,
                  -1,
                  -1,
                  -1,
                  -1,
                  -1,
                  -1,
                  -1,
                  -1,
                  -1
                ],
                "split_indices": [
                  99,
                  0,
                  80,
                  8,
                  7,
                  8,
                  86,
                  1,
                  1,
                  88,
                  9,
                  93,
                  9,
                  9,
                  69,
                  8,
                  0,
                  0,
                  0,
                  0,
                  0,
                  0,
                  0,
                  0,
                  0,
                  0,
                  0,
                  0,
                  0,
                  0,
                  0
                ],
                "loss_changes": [
                  83.60696,
                  0.0,
                  29.82881,
                  16.338694,
                  1.406456,
                  1.7416658,
                  10.183731,
                  0.9089012,
                  1.311031,
                  0.4771042,
                  2.4027138,
                  8.021483,
                  0.8448925,
                  1.7813568,
                  0.9056587,
                  0.6532707,
                  0.0,
                  0.0,
                  0.0,
                  0.0,
                  0.0,
                  0.0,
                  0.0,
                  0.0,
                  0.0,
                  0.0,
                  0.0,
                  0.0,
                  0.0,
                  0.0,
                  0.0
                ],
                "categories": [],
                "split_type": [
                  0,
                  0,
                  0,
                  0,
                  0,
                  0,
                  0,
                  0,
                  0,
                  0,
                  0,
                  0,
                  0,
                  0,
                  0,
                  0,
                  0,
                  0,
                  0,
                  0,
                  0,
                  0,
                  0,
                  0,
                  0,
                  0,
                  0,
                  0,
                  0,
                  0,
                  0
                ]
              },
              {
                "default_left": [
                  1,
                  0,
                  1,
                  1,
                  1,
                  1,
                  1,
                  1,
                  1,
                  1,
                  1,
                  1,
                  1,
                  1,
                  1,
                  1,
                  0,
                  0,
                  0,
                  0,
                  0,
                  0,
                  0,
                  0,
                  0,
                  0,
                  0,
                  0,
                  0,
                  0,
                  0
                ],
                "split_conditions": [
                  0.5,
                  0.20058179,
                  0.5,
                  58511.53,
                  3200.87,
                  19265.002,
                  0.5,
                  31.400002,
                  65.355,
                  0.5,
                  70772.48,
                  0.5,
                  90109.06,
                  771295.06,
                  0.5,
                  2.786175e6,
                  0.12610883,
                  -0.18629026,
                  -0.07491184,
                  -0.023306947,
                  -0.19527209,
                  0.10334179,
                  -0.22298717,
                  0.018575832,
                  -0.16811527,
                  -0.14209895,
                  0.022092704,
                  -0.18730567,
                  -0.01929439,
                  -0.1406655,
                  0.04219876
                ],
                "categories_nodes": [],
                "tree_param": {
                  "size_leaf_vector": "0",
                  "num_feature": "112",
                  "num_nodes": "31",
                  "num_deleted": "0"
                },
                "base_weights": [
                  -4.139013e-5,
                  0.6686059,
                  -0.21615969,
                  0.030901693,
                  -0.4921458,
                  -0.37629175,
                  0.20330366,
                  -0.5106776,
                  -0.11009399,
                  -0.5543283,
                  -0.22492695,
                  0.29284364,
                  -0.4830905,
                  -0.44527733,
                  -0.6021459,
                  -0.31520012,
                  0.42036274,
                  -0.6209675,
                  -0.24970613,
                  -0.07768982,
                  -0.6509069,
                  0.34447262,
                  -0.74329054,
                  0.061919436,
                  -0.5603842,
                  -0.47366315,
                  0.07364234,
                  -0.6243522,
                  -0.06431463,
                  -0.468885,
                  0.14066252
                ],
                "parents": [
                  2147483647,
                  0,
                  0,
                  2,
                  2,
                  3,
                  3,
                  4,
                  4,
                  5,
                  5,
                  6,
                  6,
                  7,
                  7,
                  8,
                  8,
                  9,
                  9,
                  10,
                  10,
                  11,
                  11,
                  12,
                  12,
                  13,
                  13,
                  14,
                  14,
                  15,
                  15
                ],
                "categories_segments": [],
                "categories_sizes": [],
                "right_children": [
                  2,
                  -1,
                  4,
                  6,
                  8,
                  10,
                  12,
                  14,
                  16,
                  18,
                  20,
                  22,
                  24,
                  26,
                  28,
                  30,
                  -1,
                  -1,
                  -1,
                  -1,
                  -1,
                  -1,
                  -1,
                  -1,
                  -1,
                  -1,
                  -1,
                  -1,
                  -1,
                  -1,
                  -1
                ],
                "sum_hessian": [
                  576.5671,
                  140.3244,
                  436.24268,
                  230.6521,
                  205.59058,
                  68.25622,
                  162.39589,
                  195.75847,
                  9.832107,
                  30.141418,
                  38.114796,
                  144.1632,
                  18.232697,
                  117.56624,
                  78.19222,
                  7.38314,
                  2.4489663,
                  23.879133,
                  6.262286,
                  29.203262,
                  8.911533,
                  137.95657,
                  6.2066236,
                  2.2893121,
                  15.943385,
                  111.5514,
                  6.0148444,
                  74.937294,
                  3.2549329,
                  5.500269,
                  1.8828712
                ],
                "id": 5,
                "left_children": [
                  1,
                  -1,
                  3,
                  5,
                  7,
                  9,
                  11,
                  13,
                  15,
                  17,
                  19,
                  21,
                  23,
                  25,
                  27,
                  29,
                  -1,
                  -1,
                  -1,
                  -1,
                  -1,
                  -1,
                  -1,
                  -1,
                  -1,
                  -1,
                  -1,
                  -1,
                  -1,
                  -1,
                  -1
                ],
                "split_indices": [
                  99,
                  0,
                  80,
                  8,
                  7,
                  8,
                  86,
                  1,
                  1,
                  88,
                  9,
                  93,
                  9,
                  9,
                  69,
                  8,
                  0,
                  0,
                  0,
                  0,
                  0,
                  0,
                  0,
                  0,
                  0,
                  0,
                  0,
                  0,
                  0,
                  0,
                  0
                ],
                "loss_changes": [
                  83.606964,
                  0.0,
                  29.828823,
                  16.3387,
                  1.4064598,
                  1.7416658,
                  10.183733,
                  0.9088974,
                  1.3110307,
                  0.4771042,
                  2.4027138,
                  8.0214815,
                  0.844892,
                  1.7813568,
                  0.9056587,
                  0.6532706,
                  0.0,
                  0.0,
                  0.0,
                  0.0,
                  0.0,
                  0.0,
                  0.0,
                  0.0,
                  0.0,
                  0.0,
                  0.0,
                  0.0,
                  0.0,
                  0.0,
                  0.0
                ],
                "categories": [],
                "split_type": [
                  0,
                  0,
                  0,
                  0,
                  0,
                  0,
                  0,
                  0,
                  0,
                  0,
                  0,
                  0,
                  0,
                  0,
                  0,
                  0,
                  0,
                  0,
                  0,
                  0,
                  0,
                  0,
                  0,
                  0,
                  0,
                  0,
                  0,
                  0,
                  0,
                  0,
                  0
                ]
              },
              {
                "default_left": [
                  1,
                  0,
                  1,
                  1,
                  1,
                  1,
                  1,
                  1,
                  1,
                  1,
                  1,
                  1,
                  1,
                  0,
                  1,
                  1,
                  1,
                  0,
                  0,
                  0,
                  0,
                  0,
                  0,
                  0,
                  0,
                  0,
                  0,
                  0,
                  0,
                  0,
                  0
                ],
                "split_conditions": [
                  0.5,
                  -0.18319145,
                  0.5,
                  91070.414,
                  30.099998,
                  51.59,
                  1600.14,
                  6415.0,
                  31.99,
                  55.375,
                  53.7,
                  0.5,
                  0.5,
                  -0.03944737,
                  0.5,
                  0.805,
                  709577.56,
                  0.10502101,
                  -0.11855549,
                  -0.24058935,
                  -0.0025852318,
                  -0.13113177,
                  0.14390612,
                  0.07948789,
                  -0.11523907,
                  0.14130133,
                  -0.037746906,
                  -0.16367626,
                  0.12172935,
                  0.12805577,
                  0.023332858
                ],
                "categories_nodes": [],
                "tree_param": {
                  "size_leaf_vector": "0",
                  "num_feature": "112",
                  "num_nodes": "31",
                  "num_deleted": "0"
                },
                "base_weights": [
                  0.0007960154,
                  -0.61063814,
                  0.1761125,
                  -0.018846055,
                  0.40948412,
                  0.28189373,
                  -0.16557945,
                  0.45484108,
                  0.2557164,
                  0.32904932,
                  -0.36793604,
                  -0.34007588,
                  0.13152695,
                  -0.13149123,
                  0.46518478,
                  -0.22079636,
                  0.3278153,
                  0.35007,
                  -0.39518496,
                  -0.80196446,
                  -0.008617439,
                  -0.4371059,
                  0.47968704,
                  0.26495963,
                  -0.3841302,
                  0.47100443,
                  -0.12582302,
                  -0.54558754,
                  0.4057645,
                  0.42685255,
                  0.07777619
                ],
                "parents": [
                  2147483647,
                  0,
                  0,
                  2,
                  2,
                  3,
                  3,
                  4,
                  4,
                  5,
                  5,
                  6,
                  6,
                  7,
                  7,
                  8,
                  8,
                  9,
                  9,
                  10,
                  10,
                  11,
                  11,
                  12,
                  12,
                  14,
                  14,
                  15,
                  15,
                  16,
                  16
                ],
                "categories_segments": [],
                "categories_sizes": [],
                "right_children": [
                  2,
                  -1,
                  4,
                  6,
                  8,
                  10,
                  12,
                  14,
                  16,
                  18,
                  20,
                  22,
                  24,
                  -1,
                  26,
                  28,
                  30,
                  -1,
                  -1,
                  -1,
                  -1,
                  -1,
                  -1,
                  -1,
                  -1,
                  -1,
                  -1,
                  -1,
                  -1,
                  -1,
                  -1
                ],
                "sum_hessian": [
                  506.16968,
                  112.239586,
                  393.93008,
                  215.1299,
                  178.80019,
                  70.24238,
                  144.88753,
                  136.56079,
                  42.239388,
                  65.95027,
                  4.292111,
                  91.18699,
                  53.700535,
                  2.1643188,
                  134.39648,
                  5.2800827,
                  36.959305,
                  64.59213,
                  1.3581336,
                  1.386013,
                  2.906098,
                  81.953476,
                  9.23351,
                  43.047604,
                  10.652931,
                  133.28705,
                  1.1094271,
                  3.5625787,
                  1.717504,
                  25.966976,
                  10.992328
                ],
                "id": 6,
                "left_children": [
                  1,
                  -1,
                  3,
                  5,
                  7,
                  9,
                  11,
                  13,
                  15,
                  17,
                  19,
                  21,
                  23,
                  -1,
                  25,
                  27,
                  29,
                  -1,
                  -1,
                  -1,
                  -1,
                  -1,
                  -1,
                  -1,
                  -1,
                  -1,
                  -1,
                  -1,
                  -1,
                  -1,
                  -1
                ],
                "split_indices": [
                  99,
                  0,
                  80,
                  9,
                  5,
                  1,
                  7,
                  9,
                  5,
                  5,
                  1,
                  88,
                  95,
                  0,
                  110,
                  6,
                  9,
                  0,
                  0,
                  0,
                  0,
                  0,
                  0,
                  0,
                  0,
                  0,
                  0,
                  0,
                  0,
                  0,
                  0
                ],
                "loss_changes": [
                  54.473335,
                  0.0,
                  17.976166,
                  9.58418,
                  1.1376934,
                  2.3041558,
                  7.608123,
                  0.8954525,
                  1.5579145,
                  1.1575875,
                  0.81841755,
                  7.5423756,
                  3.8654778,
                  0.0,
                  0.52495384,
                  1.4993858,
                  0.9067941,
                  0.0,
                  0.0,
                  0.0,
                  0.0,
                  0.0,
                  0.0,
                  0.0,
                  0.0,
                  0.0,
                  0.0,
                  0.0,
                  0.0,
                  0.0,
                  0.0
                ],
                "categories": [],
                "split_type": [
                  0,
                  0,
                  0,
                  0,
                  0,
                  0,
                  0,
                  0,
                  0,
                  0,
                  0,
                  0,
                  0,
                  0,
                  0,
                  0,
                  0,
                  0,
                  0,
                  0,
                  0,
                  0,
                  0,
                  0,
                  0,
                  0,
                  0,
                  0,
                  0,
                  0,
                  0
                ]
              },
              {
                "default_left": [
                  1,
                  0,
                  1,
                  1,
                  1,
                  1,
                  1,
                  1,
                  1,
                  1,
                  1,
                  1,
                  1,
                  0,
                  1,
                  1,
                  1,
                  0,
                  0,
                  0,
                  0,
                  0,
                  0,
                  0,
                  0,
                  0,
                  0,
                  0,
                  0,
                  0,
                  0
                ],
                "split_conditions": [
                  0.5,
                  0.18319145,
                  0.5,
                  91070.414,
                  30.099998,
                  51.59,
                  1600.14,
                  6415.0,
                  31.99,
                  55.375,
                  53.7,
                  0.5,
                  0.5,
                  0.03944739,
                  0.5,
                  0.805,
                  709577.56,
                  -0.10502099,
                  0.11855551,
                  0.24058938,
                  0.0025852285,
                  0.13113175,
                  -0.14390612,
                  -0.07948791,
                  0.11523905,
                  -0.14130132,
                  0.037746906,
                  0.16367626,
                  -0.121729344,
                  -0.12805577,
                  -0.02333285
                ],
                "categories_nodes": [],
                "tree_param": {
                  "size_leaf_vector": "0",
                  "num_feature": "112",
                  "num_nodes": "31",
                  "num_deleted": "0"
                },
                "base_weights": [
                  -0.0007960224,
                  0.61063814,
                  -0.17611252,
                  0.018846024,
                  -0.40948412,
                  -0.28189373,
                  0.16557941,
                  -0.45484105,
                  -0.2557164,
                  -0.3290493,
                  0.36793604,
                  0.34007582,
                  -0.13152699,
                  0.13149129,
                  -0.46518478,
                  0.22079638,
                  -0.3278153,
                  -0.35006997,
                  0.39518502,
                  0.8019646,
                  0.008617428,
                  0.43710583,
                  -0.47968704,
                  -0.2649597,
                  0.38413015,
                  -0.4710044,
                  0.12582302,
                  0.54558754,
                  -0.40576446,
                  -0.42685255,
                  -0.077776164
                ],
                "parents": [
                  2147483647,
                  0,
                  0,
                  2,
                  2,
                  3,
                  3,
                  4,
                  4,
                  5,
                  5,
                  6,
                  6,
                  7,
                  7,
                  8,
                  8,
                  9,
                  9,
                  10,
                  10,
                  11,
                  11,
                  12,
                  12,
                  14,
                  14,
                  15,
                  15,
                  16,
                  16
                ],
                "categories_segments": [],
                "categories_sizes": [],
                "right_children": [
                  2,
                  -1,
                  4,
                  6,
                  8,
                  10,
                  12,
                  14,
                  16,
                  18,
                  20,
                  22,
                  24,
                  -1,
                  26,
                  28,
                  30,
                  -1,
                  -1,
                  -1,
                  -1,
                  -1,
                  -1,
                  -1,
                  -1,
                  -1,
                  -1,
                  -1,
                  -1,
                  -1,
                  -1
                ],
                "sum_hessian": [
                  506.16968,
                  112.239586,
                  393.93008,
                  215.1299,
                  178.80019,
                  70.24238,
                  144.88753,
                  136.56079,
                  42.239388,
                  65.95027,
                  4.292111,
                  91.18699,
                  53.700535,
                  2.1643188,
                  134.39648,
                  5.2800827,
                  36.959305,
                  64.59213,
                  1.3581336,
                  1.386013,
                  2.906098,
                  81.953476,
                  9.23351,
                  43.047604,
                  10.652931,
                  133.28705,
                  1.1094271,
                  3.5625787,
                  1.717504,
                  25.966976,
                  10.992328
                ],
                "id": 7,
                "left_children": [
                  1,
                  -1,
                  3,
                  5,
                  7,
                  9,
                  11,
                  13,
                  15,
                  17,
                  19,
                  21,
                  23,
                  -1,
                  25,
                  27,
                  29,
                  -1,
                  -1,
                  -1,
                  -1,
                  -1,
                  -1,
                  -1,
                  -1,
                  -1,
                  -1,
                  -1,
                  -1,
                  -1,
                  -1
                ],
                "split_indices": [
                  99,
                  0,
                  80,
                  9,
                  5,
                  1,
                  7,
                  9,
                  5,
                  5,
                  1,
                  88,
                  95,
                  0,
                  110,
                  6,
                  9,
                  0,
                  0,
                  0,
                  0,
                  0,
                  0,
                  0,
                  0,
                  0,
                  0,
                  0,
                  0,
                  0,
                  0
                ],
                "loss_changes": [
                  54.473335,
                  0.0,
                  17.97616,
                  9.584177,
                  1.1376953,
                  2.3041553,
                  7.608122,
                  0.8954525,
                  1.5579145,
                  1.1575875,
                  0.8184177,
                  7.5423737,
                  3.8654776,
                  0.0,
                  0.52495384,
                  1.4993857,
                  0.90679455,
                  0.0,
                  0.0,
                  0.0,
                  0.0,
                  0.0,
                  0.0,
                  0.0,
                  0.0,
                  0.0,
                  0.0,
                  0.0,
                  0.0,
                  0.0,
                  0.0
                ],
                "categories": [],
                "split_type": [
                  0,
                  0,
                  0,
                  0,
                  0,
                  0,
                  0,
                  0,
                  0,
                  0,
                  0,
                  0,
                  0,
                  0,
                  0,
                  0,
                  0,
                  0,
                  0,
                  0,
                  0,
                  0,
                  0,
                  0,
                  0,
                  0,
                  0,
                  0,
                  0,
                  0,
                  0
                ]
              },
              {
                "default_left": [
                  1,
                  0,
                  1,
                  1,
                  1,
                  1,
                  1,
                  1,
                  1,
                  1,
                  1,
                  1,
                  1,
                  1,
                  1,
                  1,
                  0,
                  0,
                  0,
                  0,
                  0,
                  0,
                  0,
                  0,
                  0,
                  0,
                  0,
                  0,
                  0,
                  0,
                  0
                ],
                "split_conditions": [
                  0.5,
                  -0.1721766,
                  0.5,
                  0.5,
                  3200.87,
                  0.5,
                  0.5,
                  31.400002,
                  84.645004,
                  0.5,
                  1.245,
                  0.5,
                  14.31,
                  0.5,
                  0.5,
                  65.355,
                  0.1446484,
                  -0.1073132,
                  0.15029757,
                  0.002222488,
                  0.17039955,
                  -0.08724204,
                  0.10325068,
                  0.038515963,
                  -0.15331273,
                  0.053316634,
                  0.1342334,
                  0.15046328,
                  -0.016780721,
                  0.017243303,
                  -0.17489809
                ],
                "categories_nodes": [],
                "tree_param": {
                  "size_leaf_vector": "0",
                  "num_feature": "112",
                  "num_nodes": "31",
                  "num_deleted": "0"
                },
                "base_weights": [
                  -0.0020878732,
                  -0.573922,
                  0.14003728,
                  -0.017154176,
                  0.34110573,
                  -0.179774,
                  0.19842324,
                  0.35966328,
                  0.023287494,
                  -0.27820182,
                  0.24124193,
                  0.27978718,
                  -0.42384905,
                  0.28611955,
                  0.47319424,
                  -0.1912307,
                  0.48216134,
                  -0.35771066,
                  0.5009919,
                  0.0074082925,
                  0.56799847,
                  -0.29080677,
                  0.34416893,
                  0.12838654,
                  -0.5110424,
                  0.17772211,
                  0.44744465,
                  0.50154424,
                  -0.055935737,
                  0.057477675,
                  -0.5829936
                ],
                "parents": [
                  2147483647,
                  0,
                  0,
                  2,
                  2,
                  3,
                  3,
                  4,
                  4,
                  5,
                  5,
                  6,
                  6,
                  7,
                  7,
                  8,
                  8,
                  9,
                  9,
                  10,
                  10,
                  11,
                  11,
                  12,
                  12,
                  13,
                  13,
                  14,
                  14,
                  15,
                  15
                ],
                "categories_segments": [],
                "categories_sizes": [],
                "right_children": [
                  2,
                  -1,
                  4,
                  6,
                  8,
                  10,
                  12,
                  14,
                  16,
                  18,
                  20,
                  22,
                  24,
                  26,
                  28,
                  30,
                  -1,
                  -1,
                  -1,
                  -1,
                  -1,
                  -1,
                  -1,
                  -1,
                  -1,
                  -1,
                  -1,
                  -1,
                  -1,
                  -1,
                  -1
                ],
                "sum_hessian": [
                  443.33258,
                  87.647736,
                  355.68484,
                  200.13658,
                  155.54826,
                  114.17516,
                  85.961426,
                  146.8424,
                  8.705863,
                  92.81539,
                  21.35977,
                  76.50814,
                  9.453285,
                  91.2513,
                  55.59111,
                  6.329947,
                  2.3759158,
                  84.71228,
                  8.103109,
                  13.0462675,
                  8.313502,
                  7.4007607,
                  69.107376,
                  1.2246404,
                  8.228644,
                  55.835796,
                  35.4155,
                  52.813572,
                  2.7775388,
                  4.3938327,
                  1.9361143
                ],
                "id": 8,
                "left_children": [
                  1,
                  -1,
                  3,
                  5,
                  7,
                  9,
                  11,
                  13,
                  15,
                  17,
                  19,
                  21,
                  23,
                  25,
                  27,
                  29,
                  -1,
                  -1,
                  -1,
                  -1,
                  -1,
                  -1,
                  -1,
                  -1,
                  -1,
                  -1,
                  -1,
                  -1,
                  -1,
                  -1,
                  -1
                ],
                "split_indices": [
                  99,
                  0,
                  80,
                  76,
                  7,
                  88,
                  95,
                  1,
                  5,
                  96,
                  6,
                  3,
                  5,
                  76,
                  69,
                  1,
                  0,
                  0,
                  0,
                  0,
                  0,
                  0,
                  0,
                  0,
                  0,
                  0,
                  0,
                  0,
                  0,
                  0,
                  0
                ],
                "loss_changes": [
                  36.192177,
                  0.0,
                  11.279318,
                  7.0869493,
                  0.91493607,
                  4.8399367,
                  4.5214896,
                  1.0990181,
                  1.0476179,
                  5.991334,
                  1.7042277,
                  2.9474134,
                  0.56895006,
                  1.5336981,
                  0.8769684,
                  0.7477004,
                  0.0,
                  0.0,
                  0.0,
                  0.0,
                  0.0,
                  0.0,
                  0.0,
                  0.0,
                  0.0,
                  0.0,
                  0.0,
                  0.0,
                  0.0,
                  0.0,
                  0.0
                ],
                "categories": [],
                "split_type": [
                  0,
                  0,
                  0,
                  0,
                  0,
                  0,
                  0,
                  0,
                  0,
                  0,
                  0,
                  0,
                  0,
                  0,
                  0,
                  0,
                  0,
                  0,
                  0,
                  0,
                  0,
                  0,
                  0,
                  0,
                  0,
                  0,
                  0,
                  0,
                  0,
                  0,
                  0
                ]
              },
              {
                "default_left": [
                  1,
                  0,
                  1,
                  1,
                  1,
                  1,
                  1,
                  1,
                  1,
                  1,
                  1,
                  1,
                  1,
                  1,
                  1,
                  1,
                  0,
                  0,
                  0,
                  0,
                  0,
                  0,
                  0,
                  0,
                  0,
                  0,
                  0,
                  0,
                  0,
                  0,
                  0
                ],
                "split_conditions": [
                  0.5,
                  0.1721766,
                  0.5,
                  0.5,
                  3200.87,
                  0.5,
                  0.5,
                  31.400002,
                  84.645004,
                  0.5,
                  1.245,
                  0.5,
                  14.31,
                  0.5,
                  0.5,
                  65.355,
                  -0.1446484,
                  0.10731321,
                  -0.15029755,
                  -0.0022224758,
                  -0.17039955,
                  0.087242045,
                  -0.10325068,
                  -0.038515974,
                  0.15331274,
                  -0.053316627,
                  -0.1342334,
                  -0.15046325,
                  0.016780721,
                  -0.017243305,
                  0.17489807
                ],
                "categories_nodes": [],
                "tree_param": {
                  "size_leaf_vector": "0",
                  "num_feature": "112",
                  "num_nodes": "31",
                  "num_deleted": "0"
                },
                "base_weights": [
                  0.0020878746,
                  0.573922,
                  -0.14003724,
                  0.01715421,
                  -0.3411057,
                  0.17977405,
                  -0.19842322,
                  -0.35966325,
                  -0.02328752,
                  0.27820185,
                  -0.24124189,
                  -0.27978715,
                  0.42384908,
                  -0.28611952,
                  -0.47319418,
                  0.19123065,
                  -0.48216134,
                  0.3577107,
                  -0.5009918,
                  -0.0074082525,
                  -0.56799847,
                  0.2908068,
                  -0.34416893,
                  -0.12838657,
                  0.5110425,
                  -0.17772208,
                  -0.44744465,
                  -0.5015442,
                  0.055935737,
                  -0.057477683,
                  0.58299357
                ],
                "parents": [
                  2147483647,
                  0,
                  0,
                  2,
                  2,
                  3,
                  3,
                  4,
                  4,
                  5,
                  5,
                  6,
                  6,
                  7,
                  7,
                  8,
                  8,
                  9,
                  9,
                  10,
                  10,
                  11,
                  11,
                  12,
                  12,
                  13,
                  13,
                  14,
                  14,
                  15,
                  15
                ],
                "categories_segments": [],
                "categories_sizes": [],
                "right_children": [
                  2,
                  -1,
                  4,
                  6,
                  8,
                  10,
                  12,
                  14,
                  16,
                  18,
                  20,
                  22,
                  24,
                  26,
                  28,
                  30,
                  -1,
                  -1,
                  -1,
                  -1,
                  -1,
                  -1,
                  -1,
                  -1,
                  -1,
                  -1,
                  -1,
                  -1,
                  -1,
                  -1,
                  -1
                ],
                "sum_hessian": [
                  443.33258,
                  87.64772,
                  355.68484,
                  200.13661,
                  155.54825,
                  114.17518,
                  85.96143,
                  146.84239,
                  8.705863,
                  92.81541,
                  21.35977,
                  76.50815,
                  9.453286,
                  91.25128,
                  55.591103,
                  6.3299475,
                  2.375916,
                  84.712296,
                  8.10311,
                  13.0462675,
                  8.313502,
                  7.4007616,
                  69.10738,
                  1.2246408,
                  8.228645,
                  55.83579,
                  35.415497,
                  52.813564,
                  2.7775388,
                  4.393833,
                  1.9361143
                ],
                "id": 9,
                "left_children": [
                  1,
                  -1,
                  3,
                  5,
                  7,
                  9,
                  11,
                  13,
                  15,
                  17,
                  19,
                  21,
                  23,
                  25,
                  27,
                  29,
                  -1,
                  -1,
                  -1,
                  -1,
                  -1,
                  -1,
                  -1,
                  -1,
                  -1,
                  -1,
                  -1,
                  -1,
                  -1,
                  -1,
                  -1
                ],
                "split_indices": [
                  99,
                  0,
                  80,
                  76,
                  7,
                  88,
                  95,
                  1,
                  5,
                  96,
                  6,
                  3,
                  5,
                  76,
                  69,
                  1,
                  0,
                  0,
                  0,
                  0,
                  0,
                  0,
                  0,
                  0,
                  0,
                  0,
                  0,
                  0,
                  0,
                  0,
                  0
                ],
                "loss_changes": [
                  36.192158,
                  0.0,
                  11.279319,
                  7.086951,
                  0.91493607,
                  4.8399363,
                  4.52149,
                  1.0990181,
                  1.0476179,
                  5.9913354,
                  1.7042277,
                  2.9474134,
                  0.5689504,
                  1.5336981,
                  0.8769684,
                  0.74770033,
                  0.0,
                  0.0,
                  0.0,
                  0.0,
                  0.0,
                  0.0,
                  0.0,
                  0.0,
                  0.0,
                  0.0,
                  0.0,
                  0.0,
                  0.0,
                  0.0,
                  0.0
                ],
                "categories": [],
                "split_type": [
                  0,
                  0,
                  0,
                  0,
                  0,
                  0,
                  0,
                  0,
                  0,
                  0,
                  0,
                  0,
                  0,
                  0,
                  0,
                  0,
                  0,
                  0,
                  0,
                  0,
                  0,
                  0,
                  0,
                  0,
                  0,
                  0,
                  0,
                  0,
                  0,
                  0,
                  0
                ]
              },
              {
                "default_left": [
                  1,
                  0,
                  1,
                  1,
                  1,
                  1,
                  1,
                  1,
                  1,
                  1,
                  1,
                  1,
                  1,
                  1,
                  0,
                  1,
                  1,
                  0,
                  0,
                  0,
                  0,
                  0,
                  0,
                  0,
                  0,
                  0,
                  0,
                  0,
                  0,
                  0,
                  0
                ],
                "split_conditions": [
                  0.5,
                  -0.16466698,
                  0.5,
                  24364.998,
                  1.7750001,
                  0.5,
                  0.5,
                  1.675,
                  31.400002,
                  0.5,
                  17390.0,
                  0.5,
                  0.5,
                  0.5,
                  -0.1921646,
                  0.5,
                  0.5,
                  0.15938838,
                  0.03772262,
                  0.09405399,
                  -0.20369524,
                  -0.046070147,
                  0.17776003,
                  0.28081948,
                  -0.14151804,
                  0.08361262,
                  -0.100451306,
                  -0.15890524,
                  0.0837159,
                  0.15762007,
                  0.05854017
                ],
                "categories_nodes": [],
                "tree_param": {
                  "size_leaf_vector": "0",
                  "num_feature": "112",
                  "num_nodes": "31",
                  "num_deleted": "0"
                },
                "base_weights": [
                  -0.00285572,
                  -0.54888994,
                  0.11214402,
                  -0.013090891,
                  0.28351894,
                  0.36908734,
                  -0.07662291,
                  0.2266586,
                  0.4067644,
                  0.4437448,
                  -0.27361104,
                  -0.11402928,
                  0.59812343,
                  0.25090417,
                  -0.64054865,
                  0.11132782,
                  0.47504887,
                  0.5312946,
                  0.12574206,
                  0.31351328,
                  -0.6789841,
                  -0.15356715,
                  0.5925334,
                  0.93606484,
                  -0.4717268,
                  0.27870873,
                  -0.33483768,
                  -0.5296841,
                  0.279053,
                  0.5254002,
                  0.1951339
                ],
                "parents": [
                  2147483647,
                  0,
                  0,
                  2,
                  2,
                  3,
                  3,
                  4,
                  4,
                  5,
                  5,
                  6,
                  6,
                  7,
                  7,
                  8,
                  8,
                  9,
                  9,
                  10,
                  10,
                  11,
                  11,
                  12,
                  12,
                  13,
                  13,
                  15,
                  15,
                  16,
                  16
                ],
                "categories_segments": [],
                "categories_sizes": [],
                "right_children": [
                  2,
                  -1,
                  4,
                  6,
                  8,
                  10,
                  12,
                  14,
                  16,
                  18,
                  20,
                  22,
                  24,
                  26,
                  -1,
                  28,
                  30,
                  -1,
                  -1,
                  -1,
                  -1,
                  -1,
                  -1,
                  -1,
                  -1,
                  -1,
                  -1,
                  -1,
                  -1,
                  -1,
                  -1
                ],
                "sum_hessian": [
                  391.4976,
                  67.452255,
                  324.04535,
                  187.76022,
                  136.28511,
                  26.077997,
                  161.68222,
                  95.20196,
                  41.08316,
                  23.641321,
                  2.4366755,
                  153.9771,
                  7.705129,
                  93.304016,
                  1.8979404,
                  8.206715,
                  32.876446,
                  18.011757,
                  5.6295633,
                  1.0877836,
                  1.3488919,
                  146.55862,
                  7.4184785,
                  5.9505396,
                  1.7545894,
                  89.57611,
                  3.7279024,
                  1.2544421,
                  6.9522724,
                  27.120914,
                  5.7555294
                ],
                "id": 10,
                "left_children": [
                  1,
                  -1,
                  3,
                  5,
                  7,
                  9,
                  11,
                  13,
                  15,
                  17,
                  19,
                  21,
                  23,
                  25,
                  -1,
                  27,
                  29,
                  -1,
                  -1,
                  -1,
                  -1,
                  -1,
                  -1,
                  -1,
                  -1,
                  -1,
                  -1,
                  -1,
                  -1,
                  -1,
                  -1
                ],
                "split_indices": [
                  99,
                  0,
                  80,
                  8,
                  6,
                  2,
                  93,
                  6,
                  1,
                  88,
                  8,
                  96,
                  75,
                  54,
                  0,
                  2,
                  106,
                  0,
                  0,
                  0,
                  0,
                  0,
                  0,
                  0,
                  0,
                  0,
                  0,
                  0,
                  0,
                  0,
                  0
                ],
                "loss_changes": [
                  24.707968,
                  0.0,
                  6.979874,
                  4.6114836,
                  0.8698673,
                  1.420676,
                  4.174273,
                  2.183454,
                  0.7960887,
                  0.6192341,
                  1.0308144,
                  4.4204316,
                  3.5888772,
                  1.6291833,
                  0.0,
                  1.1376593,
                  0.3749342,
                  0.0,
                  0.0,
                  0.0,
                  0.0,
                  0.0,
                  0.0,
                  0.0,
                  0.0,
                  0.0,
                  0.0,
                  0.0,
                  0.0,
                  0.0,
                  0.0
                ],
                "categories": [],
                "split_type": [
                  0,
                  0,
                  0,
                  0,
                  0,
                  0,
                  0,
                  0,
                  0,
                  0,
                  0,
                  0,
                  0,
                  0,
                  0,
                  0,
                  0,
                  0,
                  0,
                  0,
                  0,
                  0,
                  0,
                  0,
                  0,
                  0,
                  0,
                  0,
                  0,
                  0,
                  0
                ]
              },
              {
                "default_left": [
                  1,
                  0,
                  1,
                  1,
                  1,
                  1,
                  1,
                  1,
                  1,
                  1,
                  1,
                  1,
                  1,
                  1,
                  0,
                  1,
                  1,
                  0,
                  0,
                  0,
                  0,
                  0,
                  0,
                  0,
                  0,
                  0,
                  0,
                  0,
                  0,
                  0,
                  0
                ],
                "split_conditions": [
                  0.5,
                  0.16466698,
                  0.5,
                  24364.998,
                  1.7750001,
                  0.5,
                  0.5,
                  1.675,
                  31.400002,
                  0.5,
                  17390.0,
                  0.5,
                  0.5,
                  0.5,
                  0.19216464,
                  0.5,
                  0.5,
                  -0.15938838,
                  -0.037722617,
                  -0.09405399,
                  0.20369524,
                  0.046070147,
                  -0.17776,
                  -0.28081948,
                  0.14151804,
                  -0.08361262,
                  0.1004513,
                  0.15890522,
                  -0.0837159,
                  -0.15762006,
                  -0.058540136
                ],
                "categories_nodes": [],
                "tree_param": {
                  "size_leaf_vector": "0",
                  "num_feature": "112",
                  "num_nodes": "31",
                  "num_deleted": "0"
                },
                "base_weights": [
                  0.0028557333,
                  0.54888994,
                  -0.112144,
                  0.0130908955,
                  -0.2835189,
                  -0.36908734,
                  0.07662291,
                  -0.2266586,
                  -0.40676433,
                  -0.4437448,
                  0.273611,
                  0.11402929,
                  -0.5981235,
                  -0.25090417,
                  0.64054877,
                  -0.11132782,
                  -0.4750488,
                  -0.5312946,
                  -0.12574205,
                  -0.31351328,
                  0.6789841,
                  0.15356715,
                  -0.59253335,
                  -0.93606484,
                  0.4717268,
                  -0.27870873,
                  0.33483765,
                  0.52968407,
                  -0.279053,
                  -0.52540016,
                  -0.19513378
                ],
                "parents": [
                  2147483647,
                  0,
                  0,
                  2,
                  2,
                  3,
                  3,
                  4,
                  4,
                  5,
                  5,
                  6,
                  6,
                  7,
                  7,
                  8,
                  8,
                  9,
                  9,
                  10,
                  10,
                  11,
                  11,
                  12,
                  12,
                  13,
                  13,
                  15,
                  15,
                  16,
                  16
                ],
                "categories_segments": [],
                "categories_sizes": [],
                "right_children": [
                  2,
                  -1,
                  4,
                  6,
                  8,
                  10,
                  12,
                  14,
                  16,
                  18,
                  20,
                  22,
                  24,
                  26,
                  -1,
                  28,
                  30,
                  -1,
                  -1,
                  -1,
                  -1,
                  -1,
                  -1,
                  -1,
                  -1,
                  -1,
                  -1,
                  -1,
                  -1,
                  -1,
                  -1
                ],
                "sum_hessian": [
                  391.4976,
                  67.452255,
                  324.04532,
                  187.76022,
                  136.28511,
                  26.077997,
                  161.68224,
                  95.20196,
                  41.08315,
                  23.641321,
                  2.4366755,
                  153.9771,
                  7.705129,
                  93.304016,
                  1.8979402,
                  8.206715,
                  32.876434,
                  18.011757,
                  5.6295633,
                  1.0877837,
                  1.3488919,
                  146.55862,
                  7.418479,
                  5.9505396,
                  1.7545894,
                  89.57611,
                  3.7279024,
                  1.2544422,
                  6.9522724,
                  27.120905,
                  5.7555275
                ],
                "id": 11,
                "left_children": [
                  1,
                  -1,
                  3,
                  5,
                  7,
                  9,
                  11,
                  13,
                  15,
                  17,
                  19,
                  21,
                  23,
                  25,
                  -1,
                  27,
                  29,
                  -1,
                  -1,
                  -1,
                  -1,
                  -1,
                  -1,
                  -1,
                  -1,
                  -1,
                  -1,
                  -1,
                  -1,
                  -1,
                  -1
                ],
                "split_indices": [
                  99,
                  0,
                  80,
                  8,
                  6,
                  2,
                  93,
                  6,
                  1,
                  88,
                  8,
                  96,
                  75,
                  54,
                  0,
                  2,
                  106,
                  0,
                  0,
                  0,
                  0,
                  0,
                  0,
                  0,
                  0,
                  0,
                  0,
                  0,
                  0,
                  0,
                  0
                ],
                "loss_changes": [
                  24.707964,
                  0.0,
                  6.9798727,
                  4.6114836,
                  0.8698654,
                  1.420676,
                  4.1742725,
                  2.183454,
                  0.7960882,
                  0.61923456,
                  1.0308144,
                  4.420431,
                  3.5888777,
                  1.6291833,
                  0.0,
                  1.1376593,
                  0.3749342,
                  0.0,
                  0.0,
                  0.0,
                  0.0,
                  0.0,
                  0.0,
                  0.0,
                  0.0,
                  0.0,
                  0.0,
                  0.0,
                  0.0,
                  0.0,
                  0.0
                ],
                "categories": [],
                "split_type": [
                  0,
                  0,
                  0,
                  0,
                  0,
                  0,
                  0,
                  0,
                  0,
                  0,
                  0,
                  0,
                  0,
                  0,
                  0,
                  0,
                  0,
                  0,
                  0,
                  0,
                  0,
                  0,
                  0,
                  0,
                  0,
                  0,
                  0,
                  0,
                  0,
                  0,
                  0
                ]
              },
              {
                "default_left": [
                  1,
                  0,
                  1,
                  1,
                  1,
                  1,
                  1,
                  1,
                  1,
                  1,
                  0,
                  1,
                  1,
                  0,
                  0,
                  0,
                  0,
                  0,
                  0,
                  0,
                  0,
                  0,
                  0
                ],
                "split_conditions": [
                  0.5,
                  -0.1592125,
                  0.5,
                  0.5,
                  46729.5,
                  0.5,
                  20.49,
                  18.995,
                  46.495003,
                  0.5,
                  -0.19052364,
                  0.935,
                  0.5,
                  -0.0026424604,
                  0.1309404,
                  -0.18010005,
                  0.088727735,
                  0.06228673,
                  -0.18713215,
                  -0.10568893,
                  0.15042172,
                  -0.16548593,
                  0.19176313
                ],
                "categories_nodes": [],
                "tree_param": {
                  "size_leaf_vector": "0",
                  "num_feature": "112",
                  "num_nodes": "23",
                  "num_deleted": "0"
                },
                "base_weights": [
                  -0.0022765019,
                  -0.5307083,
                  0.08899954,
                  0.12570868,
                  -0.37657446,
                  0.16866183,
                  -0.24950112,
                  0.32198915,
                  -0.5073254,
                  0.1880687,
                  -0.6350788,
                  0.13855767,
                  -0.42903078,
                  -0.008808201,
                  0.43646795,
                  -0.6003335,
                  0.2957591,
                  0.20762242,
                  -0.6237738,
                  -0.3522964,
                  0.5014057,
                  -0.55161977,
                  0.6392104
                ],
                "parents": [
                  2147483647,
                  0,
                  0,
                  2,
                  2,
                  3,
                  3,
                  4,
                  4,
                  5,
                  5,
                  6,
                  6,
                  7,
                  7,
                  8,
                  8,
                  9,
                  9,
                  11,
                  11,
                  12,
                  12
                ],
                "categories_segments": [],
                "categories_sizes": [],
                "right_children": [
                  2,
                  -1,
                  4,
                  6,
                  8,
                  10,
                  12,
                  14,
                  16,
                  18,
                  -1,
                  20,
                  22,
                  -1,
                  -1,
                  -1,
                  -1,
                  -1,
                  -1,
